{"weights": {"w1": [[0.4049852788448334, 0.44931742548942566, -0.23946161568164825], [0.4703114926815033, -0.02861599810421467, 0.23066730797290802], [-0.3634093701839447, 0.39324313402175903, 0.6166375875473022], [-0.49093180894851685, 0.6137446165084839, 0.049836114048957825], [0.4615173041820526, 0.18847256898880005, 0.3386857509613037], [-0.020385004580020905, 0.3755534589290619, 0.1631457507610321], [-0.3041587471961975, 0.18881814181804657, -0.3778994381427765], [-0.07331015169620514, -0.22191230952739716, 0.48244792222976685], [-0.524044930934906, -0.3640929162502289, -0.27162259817123413], [-0.3773421347141266, 0.030135121196508408, -0.6969419121742249], [0.5894578695297241, -0.5639046430587769, 0.544488787651062], [0.18265031278133392, -0.2828431725502014, 0.4497130215167999], [0.019357828423380852, 0.44527557492256165, 0.15524734556674957], [-0.13543888926506042, 0.16364336013793945, -0.1425381302833557], [0.33170604705810547, 0.409113347530365, 0.4345378577709198], [-0.2237488180398941, 0.4134129583835602, 0.21164077520370483], [0.2801085412502289, -0.2740951180458069, -0.6701900959014893], [-0.31270352005958557, -0.5133134722709656, 0.5591030716896057], [0.1764199137687683, 0.28532442450523376, 0.2905628979206085], [0.02131217159330845, 0.5033462047576904, -0.4676958918571472], [0.14019262790679932, -0.3089708089828491, 0.27943018078804016], [-0.26097410917282104, 0.25024184584617615, -0.20521610975265503], [0.4783415198326111, -0.45210880041122437, -0.37164562940597534], [-0.30537423491477966, 0.5736500024795532, 0.2806780934333801], [0.4415837526321411, -0.43188589811325073, -0.6776427030563354], [-0.5546502470970154, -0.46438124775886536, 0.18462882936000824], [0.20996882021427155, 0.4791257083415985, -0.40948402881622314], [-0.4142712950706482, 0.37365972995758057, -0.29999226331710815], [0.4342036247253418, -0.07779805362224579, 0.4447942078113556], [-0.3765002489089966, -0.18645256757736206, 0.2720491588115692], [0.18755285441875458, -0.024426473304629326, 0.4425409138202667], [0.4765589237213135, -0.48081904649734497, -0.44996997714042664]], "b1": [0.5556835532188416, -0.05433379486203194, -0.08472010493278503, -0.5027751922607422, -0.22859247028827667, 0.15400876104831696, 0.03580359369516373, -0.3108902871608734, 0.13329052925109863, -0.2776147723197937, -0.3606797158718109, -0.2029014527797699, -0.5265057682991028, -0.3790828585624695, 0.6937339901924133, 0.24169684946537018, 0.2691088020801544, -0.43665817379951477, -0.2981970012187958, -0.11585868149995804, 0.26718780398368835, -0.4188898205757141, -0.2189721316099167, -0.25969284772872925, 0.10034847259521484, -0.11148618161678314, 0.07998970150947571, -0.2857303321361542, -0.2644816040992737, -0.27915674448013306, -0.08921319991350174, -0.33940625190734863], "w2": [[0.025205710902810097, 0.05375606194138527, 0.24429276585578918, 0.04624417424201965, -0.05945797264575958, 0.17808935046195984, -0.1690746545791626, 0.036790572106838226, 0.013542541302740574, -0.26507967710494995, 0.14260609447956085, 0.06568454205989838, 0.13720731437206268, -0.2103883922100067, 0.22869502007961273, -0.06962723284959793, -0.08297239989042282, 0.13336457312107086, 0.18142174184322357, 0.035137541592121124, 0.2797571122646332, -0.2748134136199951, 0.03375136852264404, -0.029757974669337273, -0.05340564623475075, -0.02791602537035942, 0.04713158309459686, -0.25850358605384827, 0.18742144107818604, 0.14200149476528168, 0.16034236550331116, -0.09120799601078033], [0.25951820611953735, 0.11471442133188248, -0.04248290881514549, -0.20292508602142334, 0.05248568579554558, -0.015021088533103466, 0.031997062265872955, 0.1041751578450203, 0.15098050236701965, 0.016322312876582146, -0.07481973618268967, -0.029101112857460976, 0.0755067765712738, -0.02485160157084465, -0.10015872865915298, -0.05449296161532402, -0.028080608695745468, 0.019643045961856842, 0.1088651642203331, -0.06441429257392883, 0.04282398149371147, 0.09265728294849396, 0.13205929100513458, -0.08083244413137436, 0.1973496675491333, 0.14335039258003235, 0.17631909251213074, 0.03916389122605324, -0.045027997344732285, 0.07396982610225677, -0.06838423758745193, 0.05644764006137848], [0.09453713148832321, 0.1356382966041565, -0.011762302368879318, -0.03957974910736084, -0.01440898235887289, -0.030927911400794983, 0.024043038487434387, 0.04953877627849579, -0.16055862605571747, -0.08175263553857803, 0.1488688737154007, 0.06886424124240875, -0.028017237782478333, -0.11258099228143692, -0.12734530866146088, -0.1766362339258194, -0.07464344799518585, 0.05969822406768799, 0.0977950468659401, 0.0624307282269001, -0.16214950382709503, -0.10630686581134796, -0.044074203819036484, 0.17100484669208527, 0.008789255283772945, -0.045779988169670105, 0.05422113835811615, -0.073335662484169, -0.11272802203893661, 0.12902705371379852, -0.08038067817687988, -0.049290094524621964], [-0.04740806296467781, 0.1551995426416397, 0.07418888807296753, 0.007159198168665171, -0.0951191782951355, -0.12889298796653748, -0.040666013956069946, 0.1031687930226326, 0.17727115750312805, 0.2539968192577362, 0.12436473369598389, 0.04298240691423416, -0.019146854057908058, -0.10100945085287094, -0.12111765146255493, -0.11733663082122803, 0.18695421516895294, -0.12264827638864517, -0.21524497866630554, 0.0116727938875556, 0.02896440029144287, -0.11125999689102173, 0.008183779194951057, -0.031204087659716606, 0.06977386027574539, 0.20126372575759888, 0.0664757564663887, -0.0578906312584877, 0.03460357338190079, 0.08757521212100983, -0.058341607451438904, -0.041958849877119064], [0.2183876484632492, -0.13562461733818054, 0.03146538510918617, 0.12881018221378326, 0.08313454687595367, -0.1547703891992569, 0.2187560498714447, -0.15986862778663635, 0.1540374457836151, 0.25698933005332947, -0.05957935377955437, -0.052440304309129715, -0.0907425805926323, -0.09465601295232773, 0.0421561561524868, -0.15135720372200012, 0.20159949362277985, 0.05196684971451759, 0.11864428967237473, 0.04426037147641182, -0.21342380344867706, 0.10580404102802277, 0.18993863463401794, -0.2013055682182312, 0.05472191795706749, -0.02644258923828602, 0.08138887584209442, -0.011935875751078129, -0.11123691499233246, 0.05687960982322693, -0.225596621632576, 0.24756720662117004], [0.14840289950370789, 0.06276337057352066, 0.08737658709287643, -0.052352361381053925, -0.0663595199584961, -0.12352751940488815, 0.009585322812199593, -0.018318278715014458, -0.09273793548345566, -0.05178360268473625, 0.021870171651244164, 0.034759316593408585, 0.10726769268512726, -0.03967059403657913, 0.04813561588525772, -0.03285052254796028, -0.17973443865776062, 0.21466770768165588, 0.041581399738788605, -0.015774663537740707, 0.039476413279771805, 0.037656255066394806, 0.17264772951602936, 0.12664927542209625, -0.17491291463375092, 0.14126557111740112, 0.10203567892313004, 0.014115847647190094, 0.2077820897102356, 0.2237328141927719, 0.07299523055553436, 0.08807919919490814], [-0.12286600470542908, -0.03642962872982025, 0.13091795146465302, 0.09062384068965912, -0.11186234652996063, -0.14175458252429962, -0.12080277502536774, -0.17445696890354156, -0.1364077925682068, -0.043716415762901306, 0.11930255591869354, 0.029589280486106873, -0.1344573199748993, -0.14181450009346008, 0.08794201910495758, -0.13149380683898926, -0.021766066551208496, 0.0848008543252945, -0.08181438595056534, -0.019275709986686707, -0.015387430787086487, -0.041822418570518494, -0.08963146805763245, -0.1575855314731598, -0.14289867877960205, -0.09465714544057846, 0.1707376092672348, -0.08538573980331421, -0.11871049553155899, 0.042849645018577576, 0.04872147738933563, 0.09685768187046051], [0.05593634396791458, 0.04950174316763878, -0.169575497508049, -0.04029443487524986, 0.06750009208917618, -0.08670904487371445, -0.18503086268901825, 0.15274792909622192, -0.13694150745868683, -0.16006195545196533, -0.166489377617836, 0.006902236025780439, 0.0094589339569211, 0.02270572818815708, -0.022348076105117798, -0.21642398834228516, -0.23673893511295319, -0.020094603300094604, 0.10773259401321411, 0.01335423905402422, -0.11001798510551453, -0.018186666071414948, -0.2066279947757721, -0.164041206240654, -0.03935648128390312, 0.06438958644866943, 0.04993368312716484, -0.22793668508529663, 0.10299888253211975, -0.15908461809158325, 0.061520468443632126, 0.07187746465206146], [0.08985169976949692, 0.22928519546985626, -0.04261111840605736, 0.07406046986579895, 0.1806410253047943, 0.06327351927757263, -0.08502105623483658, -0.005457954481244087, 0.07778824120759964, 0.04401286318898201, 0.1205582395195961, -0.027250831946730614, -0.04508670046925545, 0.18745297193527222, 0.14564286172389984, 0.037244610488414764, -0.09179602563381195, 0.1787155419588089, 0.11553788930177689, -0.05753543972969055, 0.04725334420800209, 0.0547957569360733, -0.03248118236660957, 0.026422442868351936, -0.09268356114625931, 0.13100066781044006, -0.00836879014968872, -0.019706841558218002, 0.24000407755374908, 0.11602824926376343, 0.21223220229148865, 0.08832555264234543], [0.03917214274406433, 0.08830740302801132, -0.1981227546930313, -0.11276457458734512, -0.020506255328655243, 0.014523799531161785, -0.03840664029121399, 0.05844850838184357, 0.2398756444454193, 0.1265699565410614, -0.08014148473739624, -0.21720026433467865, -0.05453906208276749, 0.0650704875588417, 0.13611799478530884, 0.03230486437678337, 0.04007837548851967, 0.04634421691298485, -0.1270553171634674, 0.2061547338962555, -0.19221895933151245, 0.018300285562872887, 0.07000279426574707, 0.06168096885085106, 0.06211983039975166, 0.16599121689796448, 0.1011781170964241, 0.1926478147506714, 0.1442197859287262, -0.02126476913690567, -0.18553951382637024, 0.2576965391635895], [0.022185584530234337, -0.08925779163837433, 0.06692080199718475, -0.11113706231117249, -0.0830812156200409, 0.11021480709314346, -0.02928830496966839, 0.12387208640575409, -0.12218480557203293, 0.08667509257793427, 0.06985919177532196, -0.03691639006137848, 0.07075212895870209, -0.026935936883091927, 0.13286352157592773, -0.03533041849732399, -0.010193916037678719, -0.014709335751831532, -0.062479302287101746, -0.1637086272239685, 0.23687022924423218, 0.03752337768673897, 0.07074765115976334, 0.18223337829113007, 0.05181783065199852, 0.051082223653793335, -0.17297570407390594, 0.016424618661403656, -0.030125988647341728, -0.029961885884404182, 0.01975453831255436, -0.06341786682605743], [0.19719533622264862, -0.016447560861706734, -0.17591479420661926, 0.02285207062959671, -0.10301841795444489, -0.09928210079669952, 0.19436557590961456, -0.0611790306866169, 0.25427308678627014, 0.2740970551967621, 0.05355696380138397, 0.039312832057476044, 0.06518945842981339, 0.0537601038813591, -0.038089293986558914, 0.012724019587039948, 0.16561344265937805, 0.13360890746116638, -0.03403361141681671, 0.027736764401197433, -0.09296314418315887, -0.01674737222492695, 0.12239786237478256, 0.11636053025722504, 0.23919853568077087, 0.07118533551692963, -0.02218213677406311, -0.01168750785291195, -0.03768680617213249, -0.037677258253097534, -0.022329194471240044, -0.06226848438382149], [0.1545368880033493, -0.1672266274690628, -0.1262662410736084, -0.1048622876405716, 0.12598444521427155, -0.048186831176280975, 0.23938071727752686, -0.06945952028036118, 0.09285450726747513, 0.2177795022726059, -0.12360649555921555, 0.020048903301358223, 0.10203571617603302, -0.11769397556781769, 0.10019026696681976, 0.1339448243379593, 0.14574852585792542, -0.03951822593808174, 0.022754769772291183, 0.004380613099783659, -0.04303625226020813, 0.19676573574543, 0.2008860856294632, 0.07683072984218597, -0.056769076734781265, 0.11587440967559814, -0.024584777653217316, 0.22127296030521393, -0.12206273525953293, 0.1134316623210907, -0.09002427756786346, 0.12238480150699615], [0.21523942053318024, -0.034722961485385895, 0.22728829085826874, 0.22830693423748016, 0.12188720703125, 0.034421563148498535, -0.0374344140291214, 0.10463544726371765, -0.016581203788518906, 0.07498369365930557, -0.12037984281778336, -0.1764822006225586, 0.1694377213716507, 0.013666371814906597, 0.1912069022655487, 0.28148332238197327, 0.12376327812671661, 0.16538973152637482, 0.07169198244810104, -0.15234629809856415, -0.1159742996096611, -0.2251821756362915, -0.1500297337770462, 0.024411190301179886, -0.165313720703125, -0.07795465737581253, -0.09917426109313965, -0.1755981743335724, -0.1670905500650406, 0.1721135973930359, 0.16172853112220764, -0.05253412202000618], [-0.051420584321022034, 0.09439049661159515, -0.08721647411584854, -0.08358577638864517, 0.10891734063625336, -0.1540258228778839, 0.021615326404571533, 0.1561613529920578, 0.030314818024635315, 0.04807332158088684, -0.10295318067073822, -0.0024389177560806274, 0.00971996784210205, 0.04338705539703369, 0.0686858743429184, 0.15360619127750397, -0.13493356108665466, 0.005298927426338196, -0.08832404762506485, -0.13984166085720062, -0.014155864715576172, -0.15560536086559296, 0.12337230145931244, 0.020473361015319824, -0.09527522325515747, 0.09237979352474213, -0.16730639338493347, -0.06837708503007889, -0.034439414739608765, -0.15021604299545288, -0.11241023987531662, -0.02885325253009796], [0.10980284959077835, 0.14940862357616425, 0.10728054493665695, -0.10246360301971436, -0.09897460788488388, 0.13059952855110168, 0.04015436768531799, 0.004696547985076904, 0.008853957056999207, -0.1651674509048462, -0.07267900556325912, 0.1701684445142746, -0.05815677344799042, -0.02638872154057026, -0.17198649048805237, -0.12061357498168945, -0.026401221752166748, -0.11578558385372162, -0.0048049879260361195, 0.04796570912003517, -0.18628020584583282, 0.05250480771064758, -0.13841544091701508, -0.10712070763111115, 0.04537494108080864, 0.1318085789680481, -0.07297606766223907, -0.09348834306001663, -0.14515234529972076, -0.09967906773090363, -0.1449965536594391, -0.06112755835056305], [0.12670914828777313, -0.12858174741268158, 0.09525302797555923, 0.0647631511092186, -0.2689113914966583, -0.08512316644191742, 0.16145066916942596, -0.03004305250942707, 0.10151372849941254, 0.02590029686689377, 0.13296861946582794, -0.16218586266040802, 0.07070054858922958, 0.04829675704240799, -0.017742827534675598, 0.2564446032047272, 0.07823629677295685, -0.0688910186290741, -0.12048884481191635, 0.2235257625579834, -0.08516449481248856, 0.08594784140586853, -0.07328382879495621, 0.023782087489962578, 0.1742180436849594, 0.0659041628241539, 0.15958720445632935, 0.07654384523630142, 0.05561379715800285, -0.028347395360469818, -0.1069645881652832, 0.18674223124980927], [0.18631644546985626, 0.04282660409808159, 0.02681659907102585, 0.08031981438398361, -0.2038171887397766, -0.054679978638887405, -0.09975966066122055, 0.14030605554580688, 0.22103899717330933, 0.08768448978662491, 0.0358864888548851, 0.20320197939872742, -0.12592269480228424, 0.1099097952246666, -0.15843603014945984, -0.02754202112555504, -0.11133729666471481, 0.09059679508209229, -0.134988471865654, 0.17609550058841705, 0.12335032969713211, 0.13523730635643005, 0.07651945948600769, 0.12135713547468185, 0.20097121596336365, 0.2869233787059784, -0.08980787545442581, 0.1648973971605301, 0.21131137013435364, 0.08028563857078552, 0.019234485924243927, -0.08718827366828918], [0.14618489146232605, -0.03728151321411133, -0.003451621625572443, 0.08567114919424057, -0.15151312947273254, 0.13506892323493958, 0.10325030982494354, 0.010957197286188602, 0.15867719054222107, -0.05779240280389786, 0.18421541154384613, 0.09810970723628998, 0.06674414873123169, -0.10798657685518265, -0.053189609199762344, 0.007481261622160673, 0.06735006719827652, 0.04136854037642479, 0.005682831164449453, 0.2362065613269806, -0.13937543332576752, 0.10509743541479111, 0.17347896099090576, -0.11005431413650513, -0.05584532022476196, -0.12842833995819092, 0.2212754189968109, -0.06983989477157593, -0.12316352128982544, 0.06841303408145905, 0.02484283410012722, 0.2606920599937439], [-0.04663509875535965, -0.04684408754110336, 0.18096184730529785, 0.24844048917293549, 0.19298379123210907, 0.11292684078216553, -0.009098395705223083, 0.240587517619133, -0.014722284860908985, -0.11940479278564453, 0.19995170831680298, -0.03834439069032669, -0.0010132478782907128, 0.13577909767627716, 0.144047811627388, 0.14870522916316986, 0.07073579728603363, 0.061459556221961975, 0.2658027410507202, -0.15921038389205933, 0.09612015634775162, 0.10605590045452118, 0.012771030887961388, 0.25908392667770386, 0.064963698387146, 0.030008532106876373, 0.03370915725827217, -0.12694978713989258, -0.09106039255857468, 0.15984629094600677, 0.1375240981578827, -0.02033895067870617], [0.000472728512249887, 0.24854052066802979, 0.1726302206516266, 0.1427510380744934, -0.0023268163204193115, 0.01902603916823864, -0.0675123855471611, 0.10492727905511856, 0.0033152378164231777, -0.011682279407978058, 0.09528428316116333, 0.09985635429620743, 0.11544878780841827, -0.04042402282357216, 0.15516357123851776, 0.1696893870830536, -0.11281165480613708, -0.07074979692697525, 0.19923615455627441, 0.003971141297370195, 0.0013732986990362406, 0.196353942155838, -0.11786942929029465, 0.20309443771839142, 0.06556418538093567, -0.02158358320593834, 0.10628560185432434, -0.1677696704864502, 0.0008040832472033799, 0.06513603776693344, 0.0012598303146660328, 0.14075297117233276], [0.07192239910364151, 0.0696646124124527, -0.23977385461330414, 0.1545821875333786, -0.08930635452270508, -0.04322199150919914, 0.12203056365251541, 0.04575640708208084, 0.24533717334270477, -0.01195842307060957, -0.115098737180233, -0.003922735340893269, 0.03672679886221886, 0.11910130828619003, 0.05823780596256256, 0.02753252163529396, 0.1936590075492859, 0.09197325259447098, -0.0619531087577343, 0.21860946714878082, 0.03205214813351631, 0.22331863641738892, -0.0032497248612344265, -0.0036343811079859734, 0.04794708266854286, 0.021800117567181587, 0.2074882537126541, -0.021803341805934906, 0.056784700602293015, -0.03669323772192001, 0.05585098639130592, 0.0974983423948288], [-0.056909821927547455, -0.026329858228564262, -0.17580056190490723, 0.11714200675487518, -0.1678726077079773, 0.0627116858959198, 0.1434105485677719, -0.16810382902622223, 0.1592443585395813, -0.06961607933044434, -0.1512322872877121, -0.24141952395439148, -0.08250769972801208, -0.0033781598322093487, 0.009813770651817322, 0.031283024698495865, 0.18187275528907776, 0.0906049907207489, 0.027350034564733505, 0.02148430608212948, -0.20518822968006134, 0.13758410513401031, 0.006156573072075844, 0.09348104894161224, 0.21848803758621216, 0.09652915596961975, 0.26117491722106934, 0.25790834426879883, 0.017762158066034317, -0.1267363280057907, 0.08674762398004532, 0.020098812878131866], [-0.0705350786447525, 0.2464572787284851, 0.2286495864391327, 0.10323391109704971, 0.10397215187549591, -0.08863123506307602, -0.0679539144039154, 0.2604488134384155, 0.006590734235942364, -0.024397149682044983, 0.0585799440741539, 0.04089372232556343, 0.19332659244537354, 0.021852931007742882, 0.20972001552581787, 0.035581670701503754, 0.031649038195610046, 0.15800637006759644, 0.12976275384426117, 0.05740172415971756, 0.24140290915966034, 0.19925588369369507, 0.10816632211208344, 0.025313416495919228, -0.1909611076116562, 0.1586492508649826, -0.06423066556453705, -0.06560999900102615, 0.06772089004516602, 0.05258549749851227, 0.2288132905960083, 0.027856476604938507], [0.06980466842651367, -0.11239408701658249, -0.06528669595718384, -0.012632730416953564, 0.07258480787277222, 0.18309925496578217, 0.2282489538192749, 0.02881941944360733, 0.07104190438985825, 0.1196318045258522, -0.26070842146873474, -0.04207548499107361, -0.08272361010313034, -0.057578835636377335, -0.06590211391448975, 0.23455172777175903, 0.2299528867006302, 0.10512407124042511, 0.07600730657577515, 0.03746623545885086, -0.10156838595867157, 0.11284266412258148, 0.0635506883263588, -0.038644034415483475, -0.05418567359447479, 0.03137138858437538, 0.015193847939372063, 0.05981828272342682, 0.08150439709424973, -0.0012612660648301244, -0.11221878230571747, 0.200174018740654], [0.03110920451581478, 0.06688310205936432, 0.26853230595588684, 0.013339023105800152, -0.034594397991895676, 0.00012499198783189058, -0.1257038414478302, -0.0017543400172144175, -0.07411054521799088, 0.014482937753200531, 0.10543961822986603, 0.029841724783182144, -0.044145721942186356, 0.003940877038985491, 0.028159525245428085, 0.04380827769637108, -0.17440666258335114, 0.10942116379737854, -0.031171031296253204, -0.2068481594324112, -0.04632348567247391, 0.08936600387096405, -0.07105011492967606, 0.021357934921979904, 0.13690735399723053, 0.16813425719738007, 0.11482858657836914, -0.13245773315429688, -0.043070238083601, -0.0021830550394952297, 0.24423755705356598, 0.02506157010793686], [-0.01371651329100132, 0.08216272294521332, -0.05387848988175392, -0.023095877841114998, 0.036263685673475266, 0.25092411041259766, 0.0007706874748691916, 0.05484694242477417, -0.013091241009533405, -0.0973123162984848, 0.15281561017036438, 0.16506724059581757, 0.12944842875003815, -0.083835668861866, 0.24019396305084229, 0.08959473669528961, -0.1081775352358818, 0.1891702562570572, 0.24135956168174744, 0.12720473110675812, 0.1525411456823349, -0.0627499520778656, 0.18429267406463623, 0.2361568808555603, -0.16733981668949127, 0.06254944205284119, -0.17037387192249298, -0.006043544504791498, 0.1609400063753128, 0.016597077250480652, 0.0774851143360138, 0.18213467299938202], [0.05255289375782013, -0.10296870023012161, 0.2638991177082062, 0.00894157774746418, 0.0720089003443718, 0.12294630706310272, -0.010756110772490501, -0.044609520584344864, 0.1669178307056427, -0.0888434574007988, -0.027957813814282417, 0.16063234210014343, 0.022936496883630753, -0.07812710106372833, 0.05342227220535278, 0.052757661789655685, -0.08662017434835434, 0.05300883948802948, 0.15907789766788483, -0.16734835505485535, 0.02883128635585308, -0.024744609370827675, -0.0231794361025095, 0.20281139016151428, -0.1624869406223297, 0.16684353351593018, 0.04402194172143936, 0.10998883098363876, -0.0765189677476883, 0.04008409380912781, -0.024964891374111176, -0.047935131937265396], [0.04511106386780739, 0.05166928470134735, 0.16846323013305664, -0.015243916772305965, 0.10661440342664719, -0.017011508345603943, 0.009916460141539574, -0.005462145898491144, 0.11621752381324768, -0.2112484723329544, 0.07503236830234528, 0.2484818547964096, 0.1777183711528778, -0.11913570761680603, 0.09125500917434692, 0.07891687750816345, -0.19088146090507507, 0.2043500542640686, 0.09855633974075317, -0.047510065138339996, 0.02422322705388069, -0.12614308297634125, 0.019729722291231155, 0.15437090396881104, 0.003737793304026127, -0.0011376150650903583, 0.08060003072023392, -0.09038028866052628, -0.028852205723524094, -0.01421918161213398, 0.2622261047363281, 0.0278399009257555], [-0.047136541455984116, -0.045876841992139816, 0.013867782428860664, -0.1464468240737915, -0.08714661002159119, 0.12146876752376556, 0.0718628391623497, 0.15286853909492493, -0.20106789469718933, 0.0458025299012661, -0.08279765397310257, 0.133673757314682, 0.19022828340530396, 0.11068946123123169, 0.15913791954517365, 0.1254650354385376, -0.07508265227079391, 0.04225725308060646, 0.016437599435448647, -0.0127863809466362, -0.024726824834942818, -0.06523016840219498, -0.21380634605884552, -0.01597326435148716, -0.1645195633172989, -0.11929666996002197, -0.2120978683233261, -0.22024787962436676, 0.061054911464452744, 0.06685364246368408, 0.22286541759967804, 0.0817224532365799], [0.044973209500312805, -0.23224805295467377, 0.018319349735975266, 0.08362987637519836, -0.3168795108795166, 0.1661720722913742, 0.25611525774002075, -0.0227894876152277, -0.005880344659090042, 0.2538699209690094, -0.0843149796128273, 0.014278614893555641, -0.1443178951740265, 0.13371337950229645, 0.022137653082609177, 0.2553291618824005, 0.06647910922765732, 0.05459623038768768, -0.08241628110408783, 0.16922663152217865, -0.17852474749088287, 0.09569323807954788, 0.03939143568277359, -0.15734557807445526, 0.07608576118946075, 0.09514197707176208, 0.0871926099061966, 0.11917603760957718, -0.23205193877220154, 0.12831954658031464, 0.011633279733359814, 0.17976675927639008], [-0.008060304448008537, -0.054707884788513184, 0.11706294119358063, -0.02526336908340454, 0.2446897029876709, -0.06460823118686676, -0.07677438855171204, 0.25728854537010193, 0.051379282027482986, -0.03981857746839523, -0.0871092826128006, 0.2608230710029602, 0.048911575227975845, -0.10860466957092285, 0.2811237871646881, 0.03468848764896393, -0.052784860134124756, 0.23326672613620758, -0.023551899939775467, -0.13349710404872894, 0.1309472918510437, -0.05633573606610298, 0.04462119936943054, -0.054937977343797684, -0.0007232606876641512, 0.0011434757616370916, -0.042449429631233215, -0.2618597745895386, 0.18423517048358917, 0.09566255658864975, -0.04924991726875305, 0.10804063826799393]], "b2": [0.17321959137916565, 0.11483467370271683, -0.12150290608406067, 0.13177508115768433, 0.2701657712459564, 0.19108331203460693, -0.1376861035823822, 0.1033984050154686, 0.12163058668375015, 0.1801442950963974, 0.20498421788215637, 0.2526533305644989, -0.03852575644850731, 0.23092958331108093, -0.12006229162216187, -0.009584917686879635, -0.015885811299085617, 0.0253436416387558, 0.05579366162419319, 0.06849675625562668, 0.09432446211576462, 0.1112147718667984, 0.27489203214645386, 0.1625978648662567, 0.19709905982017517, 0.173660546541214, 0.25277048349380493, 0.11209588497877121, 0.11915956437587738, 0.03603341430425644, -0.04009958729147911, -0.04386839270591736], "w3": [[0.091271311044693, -0.156952902674675, -0.019899267703294754, -0.13886480033397675, -0.05096700042486191, 0.09273827075958252, -0.05862656235694885, 0.17792384326457977, 0.1991681307554245, -0.21919088065624237, -0.1815681755542755, -0.22136078774929047, -0.19098980724811554, -0.029953764751553535, -0.013305887579917908, -0.06555555760860443, -0.17551985383033752, -0.09697115421295166, -0.13511116802692413, 0.2451709806919098, 0.02700055204331875, -0.2082667201757431, -0.005491798743605614, 0.059008195996284485, 0.06319434195756912, 0.18448051810264587, 0.236367329955101, -0.06068096682429314, 0.17734897136688232, 0.20605790615081787, -0.15911541879177094, 0.23075248301029205], [0.22030869126319885, -0.11930978298187256, 0.06844324618577957, -0.1802806407213211, -0.25606098771095276, 0.09271582216024399, 0.052701592445373535, -0.036106642335653305, 0.17828379571437836, -0.2623368799686432, 0.1168913021683693, 0.06972489506006241, -0.07332155853509903, -0.037905432283878326, 0.08603213727474213, 0.007296439725905657, -0.07709372043609619, -0.013950998894870281, 0.014990623109042645, 0.01790948025882244, 0.059211309999227524, -0.06416255235671997, -0.0802512839436531, 0.23728860914707184, -0.17737676203250885, 0.10300161689519882, 0.12536917626857758, 0.08041264861822128, 0.21309085190296173, 0.12145601958036423, -0.2628477215766907, 0.0891835018992424], [0.013516832143068314, -0.10389994084835052, -0.037154365330934525, -0.2701062858104706, -0.13116180896759033, 0.01846209354698658, -0.052127644419670105, 0.1878514438867569, 0.05104121193289757, -0.0006315563223324716, 0.0018483693711459637, -0.24631445109844208, -0.08722346276044846, 0.21841569244861603, -0.11562974750995636, -0.13698670268058777, 0.057268574833869934, 0.057298969477415085, -0.22240319848060608, 0.20450888574123383, 0.08593285828828812, -0.2872186303138733, -0.09016882628202438, 0.1541862189769745, -0.14767047762870789, 0.17630437016487122, -0.06027533486485481, 0.2515181005001068, 0.24558433890342712, 0.1980658322572708, -0.0925382748246193, 0.16888739168643951], [-0.031926319003105164, -0.1593686193227768, -0.033692147582769394, -0.21935692429542542, -0.23371796309947968, 0.16658993065357208, 0.11996866762638092, -0.07982468605041504, 0.1542845219373703, -0.04475242644548416, 0.1186741292476654, -0.00180880690459162, 0.034126054495573044, 0.017395703122019768, 0.1238120049238205, 0.12105663865804672, -0.29217880964279175, -0.25409960746765137, -0.07836085557937622, 0.1980012208223343, 0.03079025261104107, -0.09403105080127716, -0.10402758419513702, 0.14299149811267853, -0.2019096165895462, 0.2136135846376419, 0.21249037981033325, 0.0067457291297614574, 0.1035415381193161, 0.10980895161628723, -0.06426882743835449, 0.2807151973247528], [0.154677152633667, -0.14198993146419525, 0.14214959740638733, -0.18577614426612854, -0.1431087851524353, 0.08200593292713165, -0.13461701571941376, 0.1186329647898674, -0.009910240769386292, -0.09076029807329178, -0.009475094266235828, -0.06946413218975067, -0.26694589853286743, -0.12557214498519897, 0.08133803308010101, 0.12900108098983765, -0.27062493562698364, 0.004023993853479624, -0.22312085330486298, 0.10356935113668442, 0.25988316535949707, 0.03270610421895981, -0.2238614857196808, 0.21482783555984497, -0.012616138905286789, 0.11392731219530106, 0.2715321481227875, -5.70125448575709e-05, 0.06365633010864258, 0.029569625854492188, -0.08727839589118958, 0.1821596622467041], [0.10099273920059204, -0.15672264993190765, -0.09676539152860641, -0.09128923714160919, -0.2373487502336502, 0.07489869743585587, -0.003915891051292419, -0.012900601141154766, 0.14824920892715454, -0.05209426209330559, 0.1662883311510086, -0.11434311419725418, -0.2086583822965622, 0.21910828351974487, 0.024686649441719055, -0.07386207580566406, -0.13030411303043365, -0.070866160094738, -0.19280557334423065, 0.1409488469362259, 0.19324150681495667, -0.22843004763126373, -0.1949547380208969, -0.039631448686122894, 0.17383068799972534, 0.2614445090293884, 0.0937342494726181, 0.2883935272693634, 0.03633170202374458, -0.07128825783729553, 0.037841830402612686, 0.1680831015110016]], "b3": [0.10593076050281525, -0.07378804683685303, 0.05448465794324875, 0.012902246788144112, 0.06335707008838654, -0.10132979601621628]}, "scalers": {"X_mean": [0.94625, 1.0225, 2.7316201418234516], "X_std": [0.8266564809520338, 0.8120922053560173, 1.2883265038755938], "Y_mean": [313.28553223741886, 149.58799159203735, 123.37435472628225, 679.8296049551993, 342.55650074576516, 206.03517239289133], "Y_std": [150.93313891215792, 71.75005395953751, 59.79514519276421, 327.5249114393828, 164.30762356734087, 99.85789247191622]}}